tree
version=v4
num_class=1
num_tree_per_iteration=1
label_index=0
max_feature_idx=10
objective=binary sigmoid:1
feature_names=Column_0 Column_1 Column_2 Column_3 Column_4 Column_5 Column_6 Column_7 Column_8 Column_9 Column_10
feature_infos=none [-0.43887543453278793:3.5998092546961087] [-0.72346565301034738:3.41456477412224] [-0.63286703682699907:3.2875482355526415] none [-0.62190133979518425:3.6051256086852526] [-0.51066847989497766:3.5238444957714465] [-0.39927470475234522:2.5045413298101655] none none [-0.2498339421935673:4.0026586908884294]
tree_sizes=658 575 686 574 577 682 467 577 366 679 689 685 581 470 368 581 685 472 579 585 581 696 582 477 476 574 478 472 473 474 799 583 693 696 472 1131 578 582 582 691 478 478 587 477 581 683 368 367 471 580 800 477 475 789 797 686 367 478 576 581 685 794 913 588 584 583 368 478 477 477 367 472 584 581 582 907 477 478 582 584 581 477 368 592 587 588 587 370 588 589 482 370 586 481 370 594 697 590 483 706

Tree=0
num_leaves=5
num_cat=0
split_feature=1 1 1 1
split_gain=800 1.13687e-13 2.84217e-14 3.55271e-15
threshold=-0.4030313480099143 2.3302745262509181 -0.42112743098685285 -0.42006700295286536
decision_type=2 2 2 2
left_child=2 -2 -1 -4
right_child=1 -3 3 -5
leaf_value=-1.4746657111298893 -1.1067039917582528 -1.1067039917582528 -1.4746657111298893 -1.4746657111298893
leaf_weight=90.499935388565063 16.958832025527958 8.0831816196441633 6.1812565326690674 5.071800231933592
leaf_count=571 107 51 39 32
internal_value=-1.40199 -1.1067 -1.47467 -1.47467
internal_weight=126.795 25.042 101.753 11.2531
internal_count=800 158 642 71
is_linear=0
shrinkage=1


Tree=1
num_leaves=4
num_cat=0
split_feature=1 1 1
split_gain=624.771 5.68434e-14 2.84217e-14
threshold=-0.4030313480099143 2.4964824545550965 -0.42016616511634891
decision_type=2 2 2
left_child=2 -2 -1
right_child=1 -3 -4
leaf_value=-0.071666388694734781 0.23469999390739535 0.2346999939073954 -0.071666388694734781
leaf_weight=91.536925971508026 20.541471689939502 8.9635512828826887 5.7589456737041465
leaf_count=604 110 48 38
internal_value=-0.000378665 0.2347 -0.0716664
internal_weight=126.801 29.505 97.2959
internal_count=800 158 642
is_linear=0
shrinkage=0.0583196


Tree=2
num_leaves=5
num_cat=0
split_feature=1 1 1 1
split_gain=514.638 1.13687e-13 2.84217e-14 1.42109e-14
threshold=-0.4030313480099143 0.6326486431767121 -0.42048995993588706 -0.42433502341790269
decision_type=2 2 2 2
left_child=2 -2 3 -1
right_child=1 -3 -4 -5
leaf_value=-0.07074334037579523 0.19780264388696683 0.19780264388696683 -0.07074334037579523 -0.07074334037579523
leaf_weight=69.202665209770203 6.6530671119689933 26.196451753377914 7.2387725114822379 16.504401326179504
leaf_count=478 32 126 50 114
internal_value=-0.000616696 0.197803 -0.0707433 -0.0707433
internal_weight=125.795 32.8495 92.9458 85.7071
internal_count=800 158 642 592
is_linear=0
shrinkage=0.0583196


Tree=3
num_leaves=4
num_cat=0
split_feature=1 1 1
split_gain=437.47 5.68434e-14 2.84217e-14
threshold=-0.4030313480099143 2.7895268848252353 -0.42211095775119994
decision_type=2 2 2
left_child=2 -2 -1
right_child=1 -3 -4
leaf_value=-0.06989481977857008 0.17276987511157435 0.17276987511157435 -0.06989481977857008
leaf_weight=75.585765555500984 27.280687093734741 8.050038814544676 13.127326741814612
leaf_count=547 122 36 95
internal_value=-0.000777955 0.17277 -0.0698948
internal_weight=124.044 35.3307 88.7131
internal_count=800 158 642
is_linear=0
shrinkage=0.0583196


Tree=4
num_leaves=4
num_cat=0
split_feature=1 1 1
split_gain=379.664 5.68434e-14 1.42109e-14
threshold=-0.4030313480099143 2.2127714099581444 -0.42006700295286536
decision_type=2 2 2
left_child=2 -2 -1
right_child=1 -3 -4
leaf_value=-0.069113397994830156 0.15461020574135845 0.15461020574135845 -0.069113397994830156
leaf_weight=80.388335138559341 23.72704291343689 13.390509366989134 4.2170929908752433
leaf_count=610 101 57 32
internal_value=-0.000892323 0.15461 -0.0691134
internal_weight=121.723 37.1176 84.6054
internal_count=800 158 642
is_linear=0
shrinkage=0.0583196


Tree=5
num_leaves=5
num_cat=0
split_feature=1 1 1 1
split_gain=334.354 2.84217e-14 2.84217e-14 2.84217e-14
threshold=-0.4030313480099143 -0.42502713484466548 2.5568378089170083 1.5101326041251075
decision_type=2 2 2 2
left_child=1 -1 3 -2
right_child=2 -3 -4 -5
leaf_value=-0.068392600111241153 0.14081648257419721 -0.068392600111241153 0.14081648257419724 0.14081648257419724
leaf_weight=57.017709612846375 15.770974531769754 23.610857725143433 10.918366983532904 11.646258115768431
leaf_count=454 65 188 45 48
internal_value=-0.000976034 -0.0683926 0.140816 0.140816
internal_weight=118.964 80.6286 38.3356 27.4172
internal_count=800 642 158 113
is_linear=0
shrinkage=0.0583196


Tree=6
num_leaves=3
num_cat=0
split_feature=1 1
split_gain=297.663 2.84217e-14
threshold=-0.4030313480099143 2.6846720036706713
decision_type=2 2
left_child=-1 -2
right_child=1 -3
leaf_value=-0.067726717247757834 0.12998041420260284 0.12998041420260284
leaf_weight=76.786456122994423 29.436587244272232 9.6472848951816541
leaf_count=642 119 39
internal_value=-0.00103872 0.12998
internal_weight=115.87 39.0839
internal_count=800 158
is_linear=0
shrinkage=0.0583196


Tree=7
num_leaves=4
num_cat=0
split_feature=1 1 1
split_gain=267.216 2.84217e-14 1.42109e-14
threshold=-0.4030313480099143 2.8560221984526395 -0.42105660087007885
decision_type=2 2 2
left_child=2 -2 -1
right_child=1 -3 -4
leaf_value=-0.067110697376274148 0.12124587705817792 0.12124587705817792 -0.067110697376274148
leaf_weight=65.340827837586403 31.204888597130775 8.2380905896425229 7.7407252490520468
leaf_count=574 125 33 68
internal_value=-0.00108648 0.121246 -0.0671107
internal_weight=112.525 39.443 73.0816
internal_count=800 158 642
is_linear=0
shrinkage=0.0583196


Tree=8
num_leaves=2
num_cat=0
split_feature=1
split_gain=241.467
threshold=-0.4030313480099143
decision_type=2
left_child=-1
right_child=-2
leaf_value=-0.066540085619211028 0.11406070649001439
leaf_weight=69.515039697289467 39.479813516139984
leaf_count=642 158
internal_value=-0.00112337
internal_weight=108.995
internal_count=800
is_linear=0
shrinkage=0.0583196


Tree=9
num_leaves=5
num_cat=0
split_feature=1 1 1 1
split_gain=219.362 2.84217e-14 1.42109e-14 1.42109e-14
threshold=-0.4030313480099143 2.7895268848252353 -0.42124480660893543 1.0249928497287144
decision_type=2 2 2 2
left_child=2 3 -1 -2
right_child=1 -3 -4 -5
leaf_value=-0.066010896030000793 0.10805203773993396 0.10805203773993401 -0.066010896030000793 0.10805203773993401
leaf_weight=58.469522535800934 11.675786927342417 8.9431559443473798 7.6175082176923743 18.631574884057045
leaf_count=568 47 36 74 75
internal_value=-0.00115216 0.108052 -0.0660109 0.108052
internal_weight=105.338 39.2505 66.087 30.3074
internal_count=800 158 642 122
is_linear=0
shrinkage=0.0583196


Tree=10
num_leaves=5
num_cat=0
split_feature=1 1 1 1
split_gain=200.154 2.84217e-14 1.42109e-14 1.42109e-14
threshold=-0.4030313480099143 1.0890435124686053 -0.42016616511634891 -0.42581840843491187
decision_type=2 2 2 2
left_child=2 -2 3 -1
right_child=1 -3 -4 -5
leaf_value=-0.065519582256862219 0.10295848495240481 0.10295848495240481 -0.065519582256862219 -0.065519582256862219
leaf_weight=42.647005200386047 12.279297411441801 26.523282408714294 3.7169408202171317 16.432790994644165
leaf_count=436 50 108 38 168
internal_value=-0.00117482 0.102958 -0.0655196 -0.0655196
internal_weight=101.599 38.8026 62.7967 59.0798
internal_count=800 158 642 604
is_linear=0
shrinkage=0.0583196


Tree=11
num_leaves=5
num_cat=0
split_feature=1 1 1 6
split_gain=183.296 1.42109e-14 1.42109e-14 1.42109e-14
threshold=-0.4030313480099143 -0.42079351757920408 2.7895268848252353 0.65934028304828551
decision_type=2 2 2 2
left_child=1 -1 3 -2
right_child=2 -3 -4 -5
leaf_value=-0.065062972679425735 0.098591220354722883 -0.065062972679425735 0.098591220354722939 0.098591220354722939
leaf_weight=53.882747888565063 7.9735363572835949 5.7598799467086783 8.6984032988548261 21.504385933279991
leaf_count=580 33 62 36 89
internal_value=-0.00119278 -0.065063 0.0985912 0.0985912
internal_weight=97.819 59.6426 38.1763 29.4779
internal_count=800 642 158 122
is_linear=0
shrinkage=0.0583196


Tree=12
num_leaves=4
num_cat=0
split_feature=1 1 1
split_gain=168.377 1.42109e-14 1.42109e-14
threshold=-0.4030313480099143 -0.42035032341996126 2.6846720036706713
decision_type=2 2 2
left_child=1 -1 -2
right_child=2 -3 -4
leaf_value=-0.064638195771044862 0.094810237706023995 -0.064638195771044862 0.094810237706023995
leaf_weight=52.741899758577347 28.172951117157936 3.8806748986244193 9.233152046799658
leaf_count=598 119 44 39
internal_value=-0.00120707 -0.0646382 0.0948102
internal_weight=94.0287 56.6226 37.4061
internal_count=800 642 158
is_linear=0
shrinkage=0.0583196


Tree=13
num_leaves=3
num_cat=0
split_feature=1 1
split_gain=155.082 1.42109e-14
threshold=-0.4030313480099143 2.8560221984526395
decision_type=2 2
left_child=-1 -2
right_child=1 -3
leaf_value=-0.06424269555208495 0.09150950111719558 0.09150950111719558
leaf_weight=53.733922764658928 28.893353417515755 7.6278453022241584
leaf_count=642 125 33
internal_value=-0.00121849 0.0915095
internal_weight=90.2551 36.5212
internal_count=800 158
is_linear=0
shrinkage=0.0583196


Tree=14
num_leaves=2
num_cat=0
split_feature=1
split_gain=143.163
threshold=-0.4030313480099143
decision_type=2
left_child=-1
right_child=-2
leaf_value=-0.063874146068235785 0.088607132583485473
leaf_weight=50.973629996180534 35.546589910984039
leaf_count=642 158
internal_value=-0.00122764
internal_weight=86.5202
internal_count=800
is_linear=0
shrinkage=0.0583196


Tree=15
num_leaves=4
num_cat=0
split_feature=1 1 1
split_gain=132.422 1.42109e-14 7.10543e-15
threshold=-0.4030313480099143 2.4964824545550965 -0.42042520097197944
decision_type=2 2 2
left_child=2 -2 -1
right_child=1 -3 -4
leaf_value=-0.063530455514559173 0.086038912155958117 0.086038912155958117 -0.063530455514559173
leaf_weight=44.799550473690033 24.021467715501785 10.48209500312805 3.5387880206108084
leaf_count=595 110 48 47
internal_value=-0.00123497 0.0860389 -0.0635305
internal_weight=82.8419 34.5036 48.3383
internal_count=800 158 642
is_linear=0
shrinkage=0.0583196


Tree=16
num_leaves=5
num_cat=0
split_feature=1 1 1 1
split_gain=122.702 1.42109e-14 7.10543e-15 7.10543e-15
threshold=-0.4030313480099143 2.8560221984526395 -0.42042520097197944 1.949657763319063
decision_type=2 2 2 2
left_child=2 3 -1 -2
right_child=1 -3 -4 -5
leaf_value=-0.063209705024561511 0.083753689369070863 0.083753689369070877 -0.063209705024561511 0.083753689369070877
leaf_weight=42.469692826271057 18.185321152210239 6.9780883491039267 3.3547488451004019 8.2468316853046399
leaf_count=595 86 33 47 39
internal_value=-0.00124085 0.0837537 -0.0632097 0.0837537
internal_weight=79.2347 33.4102 45.8244 26.4322
internal_count=800 158 642 125
is_linear=0
shrinkage=0.0583196


Tree=17
num_leaves=3
num_cat=0
split_feature=1 1
split_gain=113.869 1.42109e-14
threshold=-0.4030313480099143 2.6321909345764025
decision_type=2 2
left_child=-1 -2
right_child=1 -3
leaf_value=-0.062910168591569587 0.081710256814141735 0.081710256814141735
leaf_weight=43.428151175379753 23.700715363025665 8.5812934935092908
leaf_count=642 116 42
internal_value=-0.00124555 0.0817103
internal_weight=75.7102 32.282
internal_count=800 158
is_linear=0
shrinkage=0.0583196


Tree=18
num_leaves=4
num_cat=0
split_feature=1 1 1
split_gain=105.818 7.10543e-15 7.10543e-15
threshold=-0.4030313480099143 -0.42094732011848474 2.3302745262509181
decision_type=2 2 2
left_child=1 -1 -2
right_child=2 -3 -4
leaf_value=-0.062630273457912972 0.079875013907642581 -0.062630273457912972 0.079875013907642595
leaf_weight=36.979727141559124 21.082993701100353 4.1658271476626387 10.0489035397768
leaf_count=577 107 65 51
internal_value=-0.00124931 -0.0626303 0.079875
internal_weight=72.2775 41.1456 31.1319
internal_count=800 642 158
is_linear=0
shrinkage=0.0583196


Tree=19
num_leaves=4
num_cat=0
split_feature=1 1 1
split_gain=98.4551 7.10543e-15 8.88178e-16
threshold=-0.4030313480099143 -0.42247927435842464 -0.42006700295286536
decision_type=2 2 2
left_child=1 -1 -3
right_child=-2 2 -4
leaf_value=-0.062368577858712484 0.07822024240969104 -0.062368577858712471 -0.062368577858712484
leaf_weight=32.841432496905327 29.970906019210815 4.1886485069990158 1.9425616264343251
leaf_count=541 158 69 32
internal_value=-0.00125228 -0.0623686 -0.0623686
internal_weight=68.9435 38.9726 6.13121
internal_count=800 642 101
is_linear=0
shrinkage=0.0583196


Tree=20
num_leaves=4
num_cat=0
split_feature=1 1 1
split_gain=91.7049 7.10543e-15 7.10543e-15
threshold=-0.4030313480099143 -0.42013783306963931 2.0531142555967472
decision_type=2 2 2
left_child=1 -1 -2
right_child=2 -3 -4
leaf_value=-0.062123763193336137 0.076722928022180073 -0.062123763193336137 0.076722928022180101
leaf_weight=34.893403619527817 16.774435162544254 2.0119754970073691 12.033833920955656
leaf_count=607 92 35 66
internal_value=-0.00125463 -0.0621238 0.0767229
internal_weight=65.7136 36.9054 28.8083
internal_count=800 642 158
is_linear=0
shrinkage=0.0583196


Tree=21
num_leaves=5
num_cat=0
split_feature=1 1 1 10
split_gain=85.5017 7.10543e-15 7.10543e-15 7.10543e-15
threshold=-0.4030313480099143 -0.42006700295286536 -0.42112743098685285 1.0000000180025095e-35
decision_type=2 2 2 2
left_child=1 2 -1 -2
right_child=3 -3 -4 -5
leaf_value=-0.061894631434996891 0.075363781590026893 -0.061894631434996891 -0.061894631434996787 0.075363781590026852
leaf_weight=31.075658880174156 19.426193878054619 1.7415430545806874 2.1225055977702167 8.2255055159330386
leaf_count=571 111 32 39 47
internal_value=-0.00125646 -0.0618946 -0.0618946 0.0753638
internal_weight=62.5914 34.9397 33.1982 27.6517
internal_count=800 642 610 158
is_linear=0
shrinkage=0.0583196


Tree=22
num_leaves=4
num_cat=0
split_feature=1 1 2
split_gain=79.7889 7.10543e-15 7.10543e-15
threshold=-0.4030313480099143 -0.4205506714645505 0.79381217027160145
decision_type=2 2 2
left_child=1 -1 -2
right_child=2 -3 -4
leaf_value=-0.061680065296260272 0.074126482275041317 -0.061680065296260272 0.074126482275041372
leaf_weight=30.341379392892122 5.2008574753999737 2.7302090115845195 21.306738689541817
leaf_count=589 31 53 127
internal_value=-0.00125787 -0.0616801 0.0741265
internal_weight=59.5792 33.0716 26.5076
internal_count=800 642 158
is_linear=0
shrinkage=0.0583196


Tree=23
num_leaves=3
num_cat=0
split_feature=1 1
split_gain=74.5179 7.10543e-15
threshold=-0.4030313480099143 -0.42897743164303093
decision_type=2 2
left_child=1 -1
right_child=-2 -3
leaf_value=-0.061479058123574369 0.072997150458079654 -0.061479058123574383
leaf_weight=15.941005781292917 25.381226152181625 15.356014743447302
leaf_count=327 158 315
internal_value=-0.00125893 -0.0614791
internal_weight=56.6782 31.297
internal_count=800 642
is_linear=0
shrinkage=0.0583196


Tree=24
num_leaves=3
num_cat=0
split_feature=1 1
split_gain=69.646 7.10543e-15
threshold=-0.4030313480099143 -0.4229265159529117
decision_type=2 2
left_child=1 -1
right_child=-2 -3
leaf_value=-0.061290667700196047 0.071963901436650629 -0.061290667700196061
leaf_weight=23.984848111867908 24.276871979236603 5.6272143647074691
leaf_count=520 158 122
internal_value=-0.00125971 -0.0612907
internal_weight=53.8889 29.6121
internal_count=800 642
is_linear=0
shrinkage=0.0583196


Tree=25
num_leaves=4
num_cat=0
split_feature=1 1 1
split_gain=65.1362 7.10543e-15 3.55271e-15
threshold=-0.4030313480099143 2.8560221984526395 0.6326486431767121
decision_type=2 2 2
left_child=-1 2 -2
right_child=1 -3 -4
leaf_value=-0.061114042308108595 0.071016508941290662 0.07101650894129076 0.07101650894129076
leaf_weight=28.012842200696468 4.6983232498169007 4.8451458513736716 13.654501944780348
leaf_count=642 32 33 93
internal_value=-0.00126026 0.0710165 0.0710165
internal_weight=51.2108 23.198 18.3528
internal_count=800 158 125
is_linear=0
shrinkage=0.0583196


Tree=26
num_leaves=3
num_cat=0
split_feature=1 1
split_gain=60.9556 7.10543e-15
threshold=-0.4030313480099143 -0.42811937537125483
decision_type=2 2
left_child=1 -1
right_child=-2 -3
leaf_value=-0.060948374832610765 0.070146093458116676 -0.060948374832610779
leaf_weight=15.352578207850458 22.147237956523895 11.143000312149523
leaf_count=372 158 270
internal_value=-0.00126062 -0.0609484
internal_weight=48.6428 26.4956
internal_count=800 642
is_linear=0
shrinkage=0.0583196


Tree=27
num_leaves=3
num_cat=0
split_feature=1 6
split_gain=57.0752 7.10543e-15
threshold=-0.4030313480099143 2.1117649542881987
decision_type=2 2
left_child=-1 -2
right_child=1 -3
leaf_value=-0.060792942135051722 0.069344940896545457 0.069344940896545484
leaf_weight=25.056581139564514 12.435372009873392 8.6913890391588193
leaf_count=642 93 65
internal_value=-0.00126083 0.0693449
internal_weight=46.1833 21.1268
internal_count=800 158
is_linear=0
shrinkage=0.0583196


Tree=28
num_leaves=3
num_cat=0
split_feature=1 2
split_gain=53.4692 3.55271e-15
threshold=-0.4030313480099143 0.79381217027160145
decision_type=2 2
left_child=-1 -2
right_child=1 -3
leaf_value=-0.060647063125278441 0.068606296079301771 0.06860629607930184
leaf_weight=23.692262604832649 3.9511455297470119 16.186951041221619
leaf_count=642 31 127
internal_value=-0.00126091 0.0686063
internal_weight=43.8304 20.1381
internal_count=800 158
is_linear=0
shrinkage=0.0583196


Tree=29
num_leaves=3
num_cat=0
split_feature=1 5
split_gain=50.1148 3.55271e-15
threshold=-0.4030313480099143 0.85755809217296874
decision_type=2 2
left_child=-1 -2
right_child=1 -3
leaf_value=-0.060510103766166883 0.067924229372039624 0.067924229372039679
leaf_weight=22.399152651429176 5.2205097451806095 13.961828388273714
leaf_count=642 43 115
internal_value=-0.00126089 0.0679242
internal_weight=41.5815 19.1823
internal_count=800 158
is_linear=0
shrinkage=0.0583196


Tree=30
num_leaves=6
num_cat=0
split_feature=1 1 1 1 1
split_gain=46.9912 3.55271e-15 3.55271e-15 3.55271e-15 1.77636e-15
threshold=-0.4030313480099143 -0.43498382554546372 0.6960415976894162 -0.42829543880437865 -0.43319485916751538
decision_type=2 2 2 2 2
left_child=1 -1 -2 4 -3
right_child=2 3 -4 -5 -6
leaf_value=-0.060381495179910788 0.067293511965868427 -0.060381495179910809 0.067293511965868497 -0.06038149517991085 -0.060381495179910788
leaf_weight=3.9907164275646236 4.0449810773134258 2.1107921600341797 14.2152192145586 9.3006779551506007 5.7716973125934645
leaf_count=121 35 64 123 282 175
internal_value=-0.00126078 -0.0603815 0.0672935 -0.0603815 -0.0603815
internal_weight=39.4341 21.1739 18.2602 17.1832 7.88249
internal_count=800 642 158 521 239
is_linear=0
shrinkage=0.0583196


Tree=31
num_leaves=4
num_cat=0
split_feature=1 1 1
split_gain=44.08 3.55271e-15 3.55271e-15
threshold=-0.4030313480099143 -0.42013783306963931 -0.4229265159529117
decision_type=2 2 2
left_child=1 2 -1
right_child=-2 -3 -4
leaf_value=-0.060260675380953338 0.066709494027360206 -0.060260675380953352 -0.060260675380953276
leaf_weight=16.210080161690716 17.372062101960182 1.0910630878061045 2.7120711039751795
leaf_count=520 158 35 87
internal_value=-0.00126061 -0.0602607 -0.0602607
internal_weight=37.3853 20.0132 18.9222
internal_count=800 642 607
is_linear=0
shrinkage=0.0583196


Tree=32
num_leaves=5
num_cat=0
split_feature=1 1 1 1
split_gain=41.3645 3.55271e-15 3.55271e-15 1.77636e-15
threshold=-0.4030313480099143 -0.43639638044569889 -0.42112743098685285 -0.42253796216946587
decision_type=2 2 2 2
left_child=1 -1 3 -3
right_child=-2 2 -4 -5
leaf_value=-0.060147160193261162 0.066168074799633492 -0.060147160193261225 -0.060147160193261294 -0.060147160193261134
leaf_weight=2.474730737507346 16.518025979399681 13.375330414623024 2.0917366947978708 0.97221564687788564
leaf_count=84 158 454 71 33
internal_value=-0.00126039 -0.0601472 -0.0601472 -0.0601472
internal_weight=35.432 18.914 16.4393 14.3475
internal_count=800 642 558 487
is_linear=0
shrinkage=0.0583196


Tree=33
num_leaves=5
num_cat=0
split_feature=1 1 1 7
split_gain=38.8296 3.55271e-15 3.55271e-15 3.55271e-15
threshold=-0.4030313480099143 -0.42006700295286536 -0.42094732011848474 1.0000000180025095e-35
decision_type=2 2 2 2
left_child=1 2 -1 -2
right_child=3 -3 -4 -5
leaf_value=-0.060040484672807877 0.065665564503454954 -0.060040484672807655 -0.060040484672807891 0.065665564503454912
leaf_weight=16.063672272488478 4.7690016031265232 0.89087957143783825 0.91871955804526706 10.928962007164955
leaf_count=577 48 32 33 110
internal_value=-0.00126013 -0.0600405 -0.0600405 0.0656656
internal_weight=33.5712 17.8733 16.9824 15.698
internal_count=800 642 610 158
is_linear=0
shrinkage=0.0583196


Tree=34
num_leaves=3
num_cat=0
split_feature=1 1
split_gain=36.4616 3.55271e-15
threshold=-0.4030313480099143 1.8586552292878651
decision_type=2 2
left_child=-1 -2
right_child=1 -3
leaf_value=-0.059940201391640233 0.065198689130111842 0.065198689130111828
leaf_weight=16.888097785413269 7.5501519441604596 7.3613981455564499
leaf_count=642 80 78
internal_value=-0.00125984 0.0651987
internal_weight=31.7996 14.9116
internal_count=800 158
is_linear=0
shrinkage=0.0583196


Tree=35
num_leaves=9
num_cat=0
split_feature=1 1 1 1 1 1 1 1
split_gain=34.2482 3.55271e-15 1.77636e-15 8.88178e-16 8.88178e-16 4.44089e-16 4.44089e-16 4.44089e-16
threshold=-0.4030313480099143 -0.42882362910375033 -0.42016616511634891 -0.42659956343704758 -0.42124480660893543 -0.42807890101881257 -0.42256629421617548 -0.42358220046247647
decision_type=2 2 2 2 2 2 2 2
left_child=1 -1 3 5 6 -3 7 -5
right_child=-2 2 -4 4 -6 -7 -8 -9
leaf_value=-0.059845918495840367 0.064764493228162426 -0.05984591849584029 -0.059845918495840145 -0.059845918495840332 -0.059845918495840304 -0.059845918495840318 -0.059845918495840277 -0.059845918495840304
leaf_weight=8.350656330585478 14.158301591873167 0.96927260980010066 0.94441946595907467 2.0876640826463704 0.89471317827701558 1.068685185164213 0.82015374675393138 0.82015374675393093
leaf_count=336 158 39 38 84 36 43 33 33
internal_value=-0.00125953 -0.0598459 -0.0598459 -0.0598459 -0.0598459 -0.0598459 -0.0598459 -0.0598459
internal_weight=30.114 15.9557 7.60506 6.66064 4.62268 2.03796 3.72797 2.90782
internal_count=800 642 306 268 186 82 150 117
is_linear=0
shrinkage=0.0583196


Tree=36
num_leaves=4
num_cat=0
split_feature=1 1 1
split_gain=32.178 3.55271e-15 3.55271e-15
threshold=-0.4030313480099143 -0.42316733834994319 1.5101326041251075
decision_type=2 2 2
left_child=1 -1 -2
right_child=2 -3 -4
leaf_value=-0.059757259374540808 0.06436032572385833 -0.059757259374540739 0.06436032572385833
leaf_weight=12.068171396851538 5.5281275883316976 3.0053033828735378 7.9094748571515083
leaf_count=514 65 128 93
internal_value=-0.0012592 -0.0597573 0.0643603
internal_weight=28.5111 15.0735 13.4376
internal_count=800 642 158
is_linear=0
shrinkage=0.0583196


Tree=37
num_leaves=4
num_cat=0
split_feature=1 1 1
split_gain=30.2406 1.77636e-15 1.77636e-15
threshold=-0.4030313480099143 -0.42013783306963931 2.1207185664810697
decision_type=2 2 2
left_child=1 -1 -2
right_child=2 -3 -4
leaf_value=-0.059673866710184577 0.063983784899073221 -0.059673866710184306 0.063983784899073193
leaf_weight=13.462563728913663 7.9074414968490583 0.77625985257327812 4.8412907123565674
leaf_count=607 98 35 60
internal_value=-0.00125886 -0.0596739 0.0639838
internal_weight=26.9876 14.2388 12.7487
internal_count=800 642 158
is_linear=0
shrinkage=0.0583196


Tree=38
num_leaves=4
num_cat=0
split_feature=1 1 1
split_gain=28.4266 3.55271e-15 1.77636e-15
threshold=-0.4030313480099143 -0.42013783306963931 2.5568378089170083
decision_type=2 2 2
left_child=1 -1 -2
right_child=2 -3 -4
leaf_value=-0.059595415615807563 0.063632723606309047 -0.059595415615807265 0.063632723606309047
leaf_weight=12.716112267225979 8.647277317941187 0.73321899399161594 3.4436060115694991
leaf_count=607 113 35 45
internal_value=-0.00125851 -0.0595954 0.0636327
internal_weight=25.5402 13.4493 12.0909
internal_count=800 642 158
is_linear=0
shrinkage=0.0583196


Tree=39
num_leaves=5
num_cat=0
split_feature=1 1 1 1
split_gain=26.7273 1.77636e-15 1.77636e-15 1.77636e-15
threshold=-0.4030313480099143 -0.42006700295286536 -0.42709942168970966 1.4019709683760093
decision_type=2 2 2 2
left_child=1 2 -1 -2
right_child=3 -3 -4 -5
leaf_value=-0.059521605663755237 0.063305168148508006 -0.059521605663754917 -0.059521605663755237 0.063305168148507993
leaf_weight=7.9737971350550643 4.4982126355171186 0.6331551074981715 4.0957221016287795 6.9649744033813477
leaf_count=403 62 32 207 96
internal_value=-0.00125816 -0.0595216 -0.0595216 0.0633052
internal_weight=24.1659 12.7027 12.0695 11.4632
internal_count=800 642 610 158
is_linear=0
shrinkage=0.0583196


Tree=40
num_leaves=3
num_cat=0
split_feature=1 1
split_gain=25.1348 1.77636e-15
threshold=-0.4030313480099143 -0.42016616511634891
decision_type=2 2
left_child=1 -1
right_child=-2 -3
leaf_value=-0.059452152737974953 0.062999344049610509 -0.059452152737974669
leaf_weight=11.286552287638186 10.864721596240996 0.71008110418916004
leaf_count=604 158 38
internal_value=-0.00125781 -0.0594522
internal_weight=22.8614 11.9966
internal_count=800 642
is_linear=0
shrinkage=0.0583196


Tree=41
num_leaves=3
num_cat=0
split_feature=1 1
split_gain=23.6417 3.55271e-15
threshold=-0.4030313480099143 -0.42016616511634891
decision_type=2 2
left_child=1 -1
right_child=-2 -3
leaf_value=-0.059386786213705807 0.062713617402299318 -0.059386786213705495
leaf_weight=10.658524759113787 10.294533476233481 0.67056943848729389
leaf_count=604 158 38
internal_value=-0.00125747 -0.0593868
internal_weight=21.6236 11.3291
internal_count=800 642
is_linear=0
shrinkage=0.0583196


Tree=42
num_leaves=4
num_cat=0
split_feature=1 1 1
split_gain=22.2412 1.77636e-15 1.77636e-15
threshold=-0.4030313480099143 -0.42006700295286536 -0.42180740010788292
decision_type=2 2 2
left_child=1 2 -1
right_child=-2 -3 -4
leaf_value=-0.059325256319888768 0.062446518982732034 -0.059325256319888366 -0.059325256319888768
leaf_weight=9.2149789072573167 9.7516414895653707 0.53323566913604992 0.94982603564858337
leaf_count=553 158 32 57
internal_value=-0.00125713 -0.0593253 -0.0593253
internal_weight=20.4497 10.698 10.1648
internal_count=800 642 610
is_linear=0
shrinkage=0.0583196


Tree=43
num_leaves=3
num_cat=0
split_feature=1 1
split_gain=20.9273 1.77636e-15
threshold=-0.4030313480099143 -0.42006700295286536
decision_type=2 2
left_child=1 -1
right_child=-2 -3
leaf_value=-0.059267327117558631 0.062196692127230661 -0.059267327117558201
leaf_weight=9.5980479940772039 9.2350544407963735 0.50350415706634777
leaf_count=610 158 32
internal_value=-0.0012568 -0.0592673
internal_weight=19.3366 10.1016
internal_count=800 642
is_linear=0
shrinkage=0.0583196


Tree=44
num_leaves=4
num_cat=0
split_feature=1 1 1
split_gain=19.694 3.55271e-15 1.77636e-15
threshold=-0.4030313480099143 -0.42048995993588706 2.4964824545550965
decision_type=2 2 2
left_child=1 -1 -2
right_child=2 -3 -4
leaf_value=-0.059212797142947908 0.061962896614193734 -0.059212797142947624 0.061962896614193706
leaf_weight=8.7949810624122602 6.0874376446008664 0.74281934648752468 2.6563364267349243
leaf_count=592 110 50 48
internal_value=-0.00125647 -0.0592128 0.0619629
internal_weight=18.2816 9.5378 8.74377
internal_count=800 642 158
is_linear=0
shrinkage=0.0583196


Tree=45
num_leaves=5
num_cat=0
split_feature=1 1 1 1
split_gain=18.5362 1.77636e-15 1.77636e-15 8.88178e-16
threshold=-0.4030313480099143 -0.42006700295286536 2.8560221984526395 0.80779128478252127
decision_type=2 2 2 2
left_child=1 -1 3 -2
right_child=2 -3 -4 -5
leaf_value=-0.059161443389613162 0.061743999563530938 -0.059161443389612697 0.061743999563530882 0.061743999563530896
leaf_weight=8.556198123842476 2.1477782242000085 0.44884973764419811 1.7286995463073251 4.4003261178731918
leaf_count=610 41 32 33 84
internal_value=-0.00125615 -0.0591614 0.061744 0.061744
internal_weight=17.2819 9.00505 8.2768 6.5481
internal_count=800 642 158 125
is_linear=0
shrinkage=0.0583196


Tree=46
num_leaves=2
num_cat=0
split_feature=1
split_gain=17.4488
threshold=-0.4030313480099143
decision_type=2
left_child=-1
right_child=-2
leaf_value=-0.059113086026973051 0.061538961289954563
leaf_weight=8.5016418881714362 7.8331562280654898
leaf_count=642 158
internal_value=-0.00125585
internal_weight=16.3348
internal_count=800
is_linear=0
shrinkage=0.0583196


Tree=47
num_leaves=2
num_cat=0
split_feature=1
split_gain=16.4273
threshold=-0.4030313480099143
decision_type=2
left_child=-1
right_child=-2
leaf_value=-0.059067540691401868 0.061346819900818278
leaf_weight=8.0260117817670089 7.411855787038804
leaf_count=642 158
internal_value=-0.00125555
internal_weight=15.4379
internal_count=800
is_linear=0
shrinkage=0.0583196


Tree=48
num_leaves=3
num_cat=0
split_feature=1 1
split_gain=15.4675 8.88178e-16
threshold=-0.4030313480099143 2.8560221984526395
decision_type=2 2
left_child=-1 -2
right_child=1 -3
leaf_value=-0.059024642052808871 0.061166692125039272 0.061166692125039251
leaf_weight=7.5766657590866089 5.547424778342247 1.464520141482353
leaf_count=642 125 33
internal_value=-0.00125526 0.0611667
internal_weight=14.5886 7.01194
internal_count=800 158
is_linear=0
shrinkage=0.0583196


Tree=49
num_leaves=4
num_cat=0
split_feature=1 1 1
split_gain=14.5654 8.88178e-16 8.88178e-16
threshold=-0.4030313480099143 -0.42016616511634891 2.0531142555967472
decision_type=2 2 2
left_child=1 -1 -2
right_child=2 -3 -4
leaf_value=-0.058984235707326818 0.060997764732530886 -0.0589842357073267 0.060997764732530886
leaf_weight=6.7288491800427437 3.8619531840085983 0.42333819344639767 2.7705316320061684
leaf_count=604 92 38 66
internal_value=-0.00125499 -0.0589842 0.0609978
internal_weight=13.7847 7.15219 6.63248
internal_count=800 642 158
is_linear=0
shrinkage=0.0583196


Tree=50
num_leaves=6
num_cat=0
split_feature=1 1 1 1 1
split_gain=13.7173 8.88178e-16 8.88178e-16 8.88178e-16 4.44089e-16
threshold=-0.4030313480099143 -0.42013783306963931 -0.42680800635212529 2.7895268848252353 -0.42334947293593345
decision_type=2 2 2 2 2
left_child=1 2 -1 -2 -4
right_child=3 -3 4 -5 -6
leaf_value=-0.058946169864445813 0.060839290854995308 -0.058946169864445688 -0.058946169864445765 0.06083929085499528 -0.058946169864445778
leaf_weight=4.3010192327201366 4.8433697298169136 0.36805788055062283 1.0726258233189585 1.4291910678148267 1.009530186653137
leaf_count=409 122 35 102 36 96
internal_value=-0.00125472 -0.0589462 -0.0589462 0.0608393 -0.0589462
internal_weight=13.0238 6.75123 6.38318 6.27256 2.08216
internal_count=800 642 607 158 198
is_linear=0
shrinkage=0.0583196


Tree=51
num_leaves=3
num_cat=0
split_feature=1 1
split_gain=12.9199 8.88178e-16
threshold=-0.4030313480099143 -0.42013783306963931
decision_type=2 2
left_child=1 -1
right_child=-2 -3
leaf_value=-0.058910304315254257 0.06069056977795706 -0.058910304315254111
leaf_weight=6.0251162890344858 5.9312823191285133 0.34741197712719429
leaf_count=607 158 35
internal_value=-0.00125446 -0.0589103
internal_weight=12.3038 6.37253
internal_count=800 642
is_linear=0
shrinkage=0.0583196


Tree=52
num_leaves=3
num_cat=0
split_feature=1 1
split_gain=12.17 8.88178e-16
threshold=-0.4030313480099143 -0.43753775718457083
decision_type=2 2
left_child=1 -1
right_child=-2 -3
leaf_value=-0.058876509631030645 0.060550954971783137 -0.05887650963103077
leaf_weight=0.37475779652595509 5.6077859103679657 5.6401048377156258
leaf_count=40 158 602
internal_value=-0.00125422 -0.0588765
internal_weight=11.6226 6.01486
internal_count=800 642
is_linear=0
shrinkage=0.0583196


Tree=53
num_leaves=6
num_cat=0
split_feature=1 1 1 1 2
split_gain=11.4646 8.88178e-16 8.88178e-16 4.44089e-16 4.44089e-16
threshold=-0.4030313480099143 -0.42016616511634891 1.949657763319063 0.80779128478252127 1.6214182556981191
decision_type=2 2 2 2 2
left_child=1 -1 3 -2 -4
right_child=2 -3 4 -5 -6
leaf_value=-0.058844670019968785 0.06041985445346848 -0.058844670019968633 0.060419854453468466 0.060419854453468508 0.060419854453468508
leaf_weight=5.3410634621977806 1.3756371289491656 0.33602717146277417 1.0401158779859545 1.5098456293344495 1.3756371289491651
leaf_count=604 41 38 31 45 41
internal_value=-0.00125398 -0.0588447 0.0604199 0.0604199 0.0604199
internal_weight=10.9783 5.67709 5.30124 2.88548 2.41575
internal_count=800 642 158 86 72
is_linear=0
shrinkage=0.0583196


Tree=54
num_leaves=6
num_cat=0
split_feature=1 1 1 1 1
split_gain=10.801 8.88178e-16 8.88178e-16 2.22045e-16 2.22045e-16
threshold=-0.4030313480099143 -0.42430062021832676 1.6167096689760905 -0.42006700295286536 -0.42105660087007885
decision_type=2 2 2 2 2
left_child=1 -1 -2 4 -3
right_child=2 3 -4 -5 -6
leaf_value=-0.058814666621286926 0.06029671901459225 -0.058814666621286871 0.06029671901459225 -0.058814666621286746 -0.058814666621286767
leaf_weight=4.014421402476728 2.2516992762684822 0.77617711108177889 2.7591244652867317 0.26707169413566578 0.30045565590262402
leaf_count=481 71 93 87 32 36
internal_value=-0.00125376 -0.0588147 0.0602967 -0.0588147 -0.0588147
internal_weight=10.3689 5.35813 5.01082 1.3437 1.07663
internal_count=800 642 158 161 129
is_linear=0
shrinkage=0.0583196


Tree=55
num_leaves=5
num_cat=0
split_feature=1 1 1 1
split_gain=10.1766 8.88178e-16 8.88178e-16 4.44089e-16
threshold=-0.4030313480099143 -0.42079351757920408 2.0531142555967472 2.8560221984526395
decision_type=2 2 2 2
left_child=1 -1 -2 -4
right_child=2 -3 3 -5
leaf_value=-0.058786394084295097 0.060181027146678341 -0.058786394084295007 0.060181027146678313 0.060181027146678299
leaf_weight=4.5685739256441593 2.7575377896428108 0.48836479894816864 0.98911681585013844 0.98911681585013866
leaf_count=580 92 62 33 33
internal_value=-0.00125355 -0.0587864 0.060181 0.060181
internal_weight=9.79271 5.05694 4.73577 1.97823
internal_count=800 642 158 66
is_linear=0
shrinkage=0.0583196


Tree=56
num_leaves=2
num_cat=0
split_feature=1
split_gain=9.58895
threshold=-0.4030313480099143
decision_type=2
left_child=-1
right_child=-2
leaf_value=-0.058759745715018588 0.060072311197482089
leaf_weight=4.772554624825716 4.4753289334475994
leaf_count=642 158
internal_value=-0.00125334
internal_weight=9.24788
internal_count=800
is_linear=0
shrinkage=0.0583196


Tree=57
num_leaves=3
num_cat=0
split_feature=1 1
split_gain=9.03586 8.88178e-16
threshold=-0.4030313480099143 -0.42025318497409986
decision_type=2 2
left_child=1 -1
right_child=-2 -3
leaf_value=-0.058734630584180665 0.059970122633078486 -0.058734630584180499
leaf_weight=4.2164082652889192 4.2287758365273476 0.28764182841405261
leaf_count=601 158 41
internal_value=-0.00125315 -0.0587346
internal_weight=8.73283 4.50405
internal_count=800 642
is_linear=0
shrinkage=0.0583196


Tree=58
num_leaves=4
num_cat=0
split_feature=1 2 2
split_gain=8.51522 8.88178e-16 4.44089e-16
threshold=-0.4030313480099143 1.0696808654137742 2.1731556459824639
decision_type=2 2 2
left_child=-1 -2 -3
right_child=1 2 -4
leaf_value=-0.058710954674861961 0.059874053294961732 0.05987405329496176 0.059874053294961788
leaf_weight=4.2505512870848179 1.0620739683508875 1.3655236735939982 1.5678234770894048
leaf_count=642 42 54 62
internal_value=-0.00125296 0.0598741 0.0598741
internal_weight=8.24597 3.99542 2.93335
internal_count=800 158 116
is_linear=0
shrinkage=0.0583196


Tree=59
num_leaves=4
num_cat=0
split_feature=1 1 1
split_gain=8.02506 8.88178e-16 4.44089e-16
threshold=-0.4030313480099143 -0.42016616511634891 2.6321909345764025
decision_type=2 2 2
left_child=1 -1 -2
right_child=2 -3 -4
leaf_value=-0.058688641659495444 0.059783715870469697 -0.058688641659495236 0.05978371587046967
leaf_weight=3.7738052662461996 2.7712263688445096 0.23742483463138331 1.0033750645816324
leaf_count=604 116 38 42
internal_value=-0.00125278 -0.0586886 0.0597837
internal_weight=7.78583 4.01123 3.7746
internal_count=800 642 158
is_linear=0
shrinkage=0.0583196


Tree=60
num_leaves=5
num_cat=0
split_feature=1 1 5 5
split_gain=7.56354 4.44089e-16 4.44089e-16 4.44089e-16
threshold=-0.4030313480099143 -0.42016616511634891 2.1256661767171003 0.85755809217296874
decision_type=2 2 2 2
left_child=1 -1 3 -2
right_child=2 -3 -4 -5
leaf_value=-0.058667609437249871 0.05969875495229178 -0.058667609437249663 0.059698754952291856 0.059698754952291856
leaf_weight=3.5612518992275004 0.97040720097720701 0.22405227180570353 1.3314889501780269 1.263786122202873
leaf_count=604 43 38 59 56
internal_value=-0.00125261 -0.0586676 0.0596988 0.0596988
internal_weight=7.35099 3.7853 3.56568 2.23419
internal_count=800 642 158 99
is_linear=0
shrinkage=0.0583196


Tree=61
num_leaves=6
num_cat=0
split_feature=1 1 1 1 1
split_gain=7.12893 4.44089e-16 4.44089e-16 4.44089e-16 5.55112e-17
threshold=-0.4030313480099143 -0.43639638044569889 2.3302745262509181 1.2805236264377367 -0.43728681619942883
decision_type=2 2 2 2 2
left_child=1 4 3 -2 -1
right_child=2 -3 -4 -5 -6
leaf_value=-0.058647781011802264 0.059618834261653063 -0.058647781011802444 0.059618834261653098 0.059618834261653098 -0.058647781011802028
leaf_weight=0.28932347148656845 1.1937416493892676 3.1046634055674076 1.0871575735509393 1.0871575735509393 0.178045213222504
leaf_count=52 56 558 51 51 32
internal_value=-0.00125245 -0.0586478 0.0596188 0.0596188 -0.0586478
internal_weight=6.94009 3.57203 3.36806 2.2809 0.467369
internal_count=800 642 158 107 84
is_linear=0
shrinkage=0.0583196


Tree=62
num_leaves=7
num_cat=0
split_feature=1 1 1 1 1 1
split_gain=6.71964 4.44089e-16 4.44089e-16 4.44089e-16 4.44089e-16 2.22045e-16
threshold=-0.4030313480099143 -0.42533271620560459 -0.42744142996784679 -0.42888636435003585 2.7895268848252353 -0.42430062021832676
decision_type=2 2 2 2 2 2
left_child=1 2 3 -1 -2 -3
right_child=4 5 -4 -5 -6 -7
leaf_value=-0.058629088025286741 0.059543636819223839 -0.058629088025286498 -0.058629088025286512 -0.058629088025286637 0.059543636819223797 -0.058629088025286755
leaf_weight=1.7483606929890818 2.4563271068036561 0.18901196680963039 0.26776695298031006 0.32027027709409583 0.72481783479452122 0.84530351823195793
leaf_count=333 122 36 51 61 36 161
internal_value=-0.0012523 -0.0586291 -0.0586291 -0.0586291 0.0595436 -0.0586291
internal_weight=6.55186 3.37071 2.3364 2.06863 3.18114 1.03432
internal_count=800 642 445 394 158 197
is_linear=0
shrinkage=0.0583196


Tree=63
num_leaves=4
num_cat=0
split_feature=1 7 1
split_gain=6.33414 8.88178e-16 4.44089e-16
threshold=-0.4030313480099143 1.0000000180025095e-35 -0.42013783306963931
decision_type=2 2 2
left_child=2 -2 -1
right_child=1 -3 -4
leaf_value=-0.058611469558534392 0.059472884722499821 0.059472884722499883 -0.058611469558534121
leaf_weight=3.0072829280979936 0.91272693872451816 2.0916659012436867 0.17340181628242124
leaf_count=607 48 110 35
internal_value=-0.00125216 0.0594729 -0.0586115
internal_weight=6.18508 3.00439 3.18068
internal_count=800 158 642
is_linear=0
shrinkage=0.0583196


Tree=64
num_leaves=4
num_cat=0
split_feature=1 1 1
split_gain=5.97101 4.44089e-16 4.44089e-16
threshold=-0.4030313480099143 -0.42180740010788292 2.8560221984526395
decision_type=2 2 2
left_child=1 -1 -2
right_child=2 -3 -4
leaf_value=-0.058594857384611856 0.059406296295907227 -0.058594857384611766 0.059406296295907178
leaf_weight=2.5852487199008469 2.2446773946285252 0.41607077047228802 0.59259483218193043
leaf_count=553 125 89 33
internal_value=-0.00125202 -0.0585949 0.0594063
internal_weight=5.83859 3.00132 2.83727
internal_count=800 642 158
is_linear=0
shrinkage=0.0583196


Tree=65
num_leaves=4
num_cat=0
split_feature=1 1 2
split_gain=5.62894 8.88178e-16 4.44089e-16
threshold=-0.4030313480099143 -0.43303296175774636 0.79381217027160145
decision_type=2 2 2
left_child=1 -1 -2
right_child=2 -3 -4
leaf_value=-0.058579192217690521 0.059343626682344448 -0.05857919221769059 0.05934362668234458
leaf_weight=0.82931559160351787 0.52568143233656917 2.0027089286595583 2.1535981260240078
leaf_count=188 31 454 127
internal_value=-0.00125189 -0.0585792 0.0593436
internal_weight=5.5113 2.83202 2.67928
internal_count=800 642 158
is_linear=0
shrinkage=0.0583196


Tree=66
num_leaves=2
num_cat=0
split_feature=1
split_gain=5.30667
threshold=-0.4030313480099143
decision_type=2
left_child=-1
right_child=-2
leaf_value=-0.058564425766176376 0.059284619242506185
leaf_weight=2.6722395932301879 2.5299354232847691
leaf_count=642 158
internal_value=-0.00125177
internal_weight=5.20218
internal_count=800
is_linear=0
shrinkage=0.0583196


Tree=67
num_leaves=3
num_cat=0
split_feature=1 1
split_gain=5.00304 4.44089e-16
threshold=-0.4030313480099143 -0.42042520097197944
decision_type=2 2
left_child=1 -1
right_child=-2 -3
leaf_value=-0.058550501973721372 0.059229076597140579 -0.058550501973721122
leaf_weight=2.3368436517193918 2.3887826297432184 0.18459101114422072
leaf_count=595 158 47
internal_value=-0.00125165 -0.0585505
internal_weight=4.91022 2.52143
internal_count=800 642
is_linear=0
shrinkage=0.0583196


Tree=68
num_leaves=3
num_cat=0
split_feature=1 1
split_gain=4.71694 4.44089e-16
threshold=-0.4030313480099143 -0.42035032341996126
decision_type=2 2
left_child=1 -1
right_child=-2 -3
leaf_value=-0.058537370522733528 0.059176771860310208 -0.058537370522733258
leaf_weight=2.2160549215041105 2.2553872354328632 0.16305420827120531
leaf_count=598 158 44
internal_value=-0.00125154 -0.0585374
internal_weight=4.6345 2.37911
internal_count=800 642
is_linear=0
shrinkage=0.0583196


Tree=69
num_leaves=3
num_cat=0
split_feature=1 1
split_gain=4.44735 8.88178e-16
threshold=-0.4030313480099143 -0.43738193092766814
decision_type=2 2
left_child=1 -1
right_child=-2 -3
leaf_value=-0.058524993683619707 0.059127522688950537 -0.058524993683620151
leaf_weight=0.16783472523093257 2.1293358989059925 2.0769547247327864
leaf_count=48 158 594
internal_value=-0.00125143 -0.058525
internal_weight=4.37413 2.24479
internal_count=800 642
is_linear=0
shrinkage=0.0583196


Tree=70
num_leaves=2
num_cat=0
split_feature=1
split_gain=4.1933
threshold=-0.4030313480099143
decision_type=2
left_child=-1
right_child=-2
leaf_value=-0.058513317609132837 0.059081140949801235
leaf_weight=2.1180285369046032 2.0102360267192125
leaf_count=642 158
internal_value=-0.00125133
internal_weight=4.12826
internal_count=800
is_linear=0
shrinkage=0.0583196


Tree=71
num_leaves=3
num_cat=0
split_feature=1 1
split_gain=3.95387 2.22045e-16
threshold=-0.4030313480099143 1.6167096689760905
decision_type=2 2
left_child=-1 -2
right_child=1 -3
leaf_value=-0.058502310898698111 0.059037451561715588 0.059037451561715602
leaf_weight=1.998403668869287 0.85277061536908139 1.0449442751705644
leaf_count=642 71 87
internal_value=-0.00125124 0.0590375
internal_weight=3.89612 1.89771
internal_count=800 158
is_linear=0
shrinkage=0.0583196


Tree=72
num_leaves=4
num_cat=0
split_feature=1 1 2
split_gain=3.72821 2.22045e-16 2.22045e-16
threshold=-0.4030313480099143 -0.42006700295286536 1.3455495605559464
decision_type=2 2 2
left_child=1 -1 -2
right_child=2 -3 -4
leaf_value=-0.058491929532942404 0.058996298009540003 -0.058491929532941606 0.058996298009540045
leaf_weight=1.7915335064753888 0.62359492760151614 0.09398208558559451 1.1678232280537484
leaf_count=610 55 32 103
internal_value=-0.00125115 -0.0584919 0.0589963
internal_weight=3.67693 1.88552 1.79142
internal_count=800 642 158
is_linear=0
shrinkage=0.0583196


Tree=73
num_leaves=4
num_cat=0
split_feature=1 1 1
split_gain=3.51552 2.22045e-16 2.22045e-16
threshold=-0.4030313480099143 -0.42016616511634891 2.0531142555967472
decision_type=2 2 2
left_child=1 -1 -2
right_child=2 -3 -4
leaf_value=-0.058482141152685969 0.058957531878576316 -0.058482141152685276 0.058957531878576275
leaf_weight=1.6736887283623216 0.98463866487145402 0.10529829747974906 0.70637121610343456
leaf_count=604 92 38 66
internal_value=-0.00125107 -0.0584821 0.0589575
internal_weight=3.47 1.77899 1.69101
internal_count=800 642 158
is_linear=0
shrinkage=0.0583196


Tree=74
num_leaves=4
num_cat=0
split_feature=1 1 1
split_gain=3.31505 4.44089e-16 2.22045e-16
threshold=-0.4030313480099143 -0.42065590478090037 2.1207185664810697
decision_type=2 2 2
left_child=1 -1 -2
right_child=2 -3 -4
leaf_value=-0.058472906433480853 0.058921013177532677 -0.058472906433480347 0.058921013177532622
leaf_weight=1.5320537495426831 0.9900301434099672 0.14640786685049567 0.60614090412855148
leaf_count=586 98 56 60
internal_value=-0.00125098 -0.0584729 0.058921
internal_weight=3.27463 1.67846 1.59617
internal_count=800 642 158
is_linear=0
shrinkage=0.0583196


Tree=75
num_leaves=7
num_cat=0
split_feature=1 1 1 1 1 1
split_gain=3.12608 2.22045e-16 2.22045e-16 2.22045e-16 2.22045e-16 2.22045e-16
threshold=-0.4030313480099143 -0.42013783306963931 -0.42480654962385511 -0.4273240543457642 2.252023436956657 1.5598958204528774
decision_type=2 2 2 2 2 2
left_child=1 2 3 -1 5 -2
right_child=4 -3 -4 -5 -6 -7
leaf_value=-0.058464202324277334 0.05888660289621974 -0.058464202324276481 -0.058464202324277244 -0.05846420232427698 0.058886602896219699 0.058886602896219636
leaf_weight=0.97926845401525475 0.64840980991721131 0.086333490908146238 0.37000067532062519 0.14800027012825012 0.51491367258131504 0.34327578172087669
leaf_count=397 68 35 150 60 54 36
internal_value=-0.00125091 -0.0584642 -0.0584642 -0.0584642 0.0588866 0.0588866
internal_weight=3.0902 1.5836 1.49727 1.12727 1.5066 0.991686
internal_count=800 642 607 457 158 104
is_linear=0
shrinkage=0.0583196


Tree=76
num_leaves=3
num_cat=0
split_feature=1 1
split_gain=2.94794 4.44089e-16
threshold=-0.4030313480099143 -0.42256629421617548
decision_type=2 2
left_child=1 -1
right_child=-2 -3
leaf_value=-0.058455995406061369 0.058854181771817074 -0.058455995406061098
leaf_weight=1.2450773001182822 1.4220078848302362 0.24901546002365682
leaf_count=535 158 107
internal_value=-0.00125084 -0.058456
internal_weight=2.9161 1.49409
internal_count=800 642
is_linear=0
shrinkage=0.0583196


Tree=77
num_leaves=3
num_cat=0
split_feature=1 1
split_gain=2.78001 4.44089e-16
threshold=-0.4030313480099143 -0.42443216186376409
decision_type=2 2
left_child=1 -1
right_child=-2 -3
leaf_value=-0.058448253822563141 0.058823629875911387 -0.058448253822562982
leaf_weight=1.0363643895834682 1.3421249780803917 0.3732668352313343
leaf_count=472 158 170
internal_value=-0.00125077 -0.0584483
internal_weight=2.75176 1.40963
internal_count=800 642
is_linear=0
shrinkage=0.0583196


Tree=78
num_leaves=4
num_cat=0
split_feature=1 1 1
split_gain=2.6217 2.22045e-16 2.22045e-16
threshold=-0.4030313480099143 -0.42006700295286536 2.8560221984526395
decision_type=2 2 2
left_child=1 -1 -2
right_child=2 -3 -4
leaf_value=-0.058440950862604722 0.058794837065038526 -0.058440950862603591 0.05879483706503838
leaf_weight=1.2636450026184318 1.0021306807175276 0.066289573907852506 0.26456249970942725
leaf_count=610 125 32 33
internal_value=-0.00125071 -0.058441 0.0587948
internal_weight=2.59663 1.32993 1.26669
internal_count=800 642 158
is_linear=0
shrinkage=0.0583196


Tree=79
num_leaves=4
num_cat=0
split_feature=1 1 1
split_gain=2.47245 2.22045e-16 2.22045e-16
threshold=-0.4030313480099143 -0.42094732011848474 2.8560221984526395
decision_type=2 2 2
left_child=1 -1 -2
right_child=2 -3 -4
leaf_value=-0.058434062348117176 0.058767702365548569 -0.058434062348116621 0.058767702365548388
leaf_weight=1.1276980584952978 0.94578199787065365 0.12703704298473928 0.24968644743785262
leaf_count=577 125 65 33
internal_value=-0.00125065 -0.0584341 0.0587677
internal_weight=2.4502 1.25474 1.19547
internal_count=800 642 158
is_linear=0
shrinkage=0.0583196


Tree=80
num_leaves=4
num_cat=0
split_feature=1 1 1
split_gain=2.33173 2.22045e-16 2.22045e-16
threshold=-0.4030313480099143 -0.42006700295286536 1.0249928497287144
decision_type=2 2 2
left_child=1 -1 -2
right_child=2 -3 -4
leaf_value=-0.05842756999056252 0.05874213124953185 -0.05842756999056125 0.058742131249531919
leaf_weight=1.1247754213400183 0.33560965023934819 0.059004612267017698 0.79261002503335476
leaf_count=610 47 32 111
internal_value=-0.00125059 -0.0584276 0.0587421
internal_weight=2.312 1.18378 1.12822
internal_count=800 642 158
is_linear=0
shrinkage=0.0583196


Tree=81
num_leaves=3
num_cat=0
split_feature=1 1
split_gain=2.19905 2.22045e-16
threshold=-0.4030313480099143 -0.42048995993588706
decision_type=2 2
left_child=1 -1
right_child=-2 -3
leaf_value=-0.05842144214761151 0.058718022567636509 -0.058421442147610664
leaf_weight=1.0298500079661606 1.0647282805293796 0.08698057499714229
leaf_count=592 158 50
internal_value=-0.00125053 -0.0584214
internal_weight=2.18156 1.11683
internal_count=800 642
is_linear=0
shrinkage=0.0583196


Tree=82
num_leaves=2
num_cat=0
split_feature=1
split_gain=2.07396
threshold=-0.4030313480099143
decision_type=2
left_child=-1
right_child=-2
leaf_value=-0.058415664979928394 0.058695305440757552
leaf_weight=1.0536614872980865 1.0047870017588136
leaf_count=642 158
internal_value=-0.00125048
internal_weight=2.05845
internal_count=800
is_linear=0
shrinkage=0.0583196


Tree=83
num_leaves=4
num_cat=0
split_feature=1 1 1
split_gain=1.95601 1.11022e-16 1.11022e-16
threshold=-0.4030313480099143 -0.42013783306963931 -0.42112743098685285
decision_type=2 2 2
left_child=1 2 -1
right_child=-2 -3 -4
leaf_value=-0.058410215267464226 0.058673893369190495 -0.058410215267463213 -0.05841021526746324
leaf_weight=0.88412485213484615 0.94819991011172533 0.054193292162381113 0.055741671938449144
leaf_count=571 158 35 36
internal_value=-0.00125043 -0.0584102 -0.0584102
internal_weight=1.94226 0.99406 0.939867
internal_count=800 642 607
is_linear=0
shrinkage=0.0583196


Tree=84
num_leaves=4
num_cat=0
split_feature=1 1 1
split_gain=1.84479 1.11022e-16 1.11022e-16
threshold=-0.4030313480099143 -0.42048995993588706 2.8560221984526395
decision_type=2 2 2
left_child=1 -1 -2
right_child=2 -3 -4
leaf_value=-0.058405077904777565 0.058653701377694656 -0.058405077904776836 0.05865370137769442
leaf_weight=0.86478550545871258 0.7078968919813633 0.073039316339418292 0.18688477948307991
leaf_count=592 125 50 33
internal_value=-0.00125039 -0.0584051 0.0586537
internal_weight=1.83261 0.937825 0.894782
internal_count=800 642 158
is_linear=0
shrinkage=0.0583196


Tree=85
num_leaves=4
num_cat=0
split_feature=1 1 1
split_gain=1.73992 1.11022e-16 1.11022e-16
threshold=-0.4030313480099143 -0.42035032341996126 2.6846720036706713
decision_type=2 2 2
left_child=1 -1 -2
right_child=2 -3 -4
leaf_value=-0.058400230740684636 0.058634674559423922 -0.058400230740683741 0.058634674559423734
leaf_weight=0.82412852346897125 0.63593956781551242 0.060638219118118286 0.2084171692840755
leaf_count=598 119 44 39
internal_value=-0.00125034 -0.0584002 0.0586347
internal_weight=1.72912 0.884767 0.844357
internal_count=800 642 158
is_linear=0
shrinkage=0.0583196


Tree=86
num_leaves=4
num_cat=0
split_feature=1 1 1
split_gain=1.64103 2.22045e-16 1.11022e-16
threshold=-0.4030313480099143 2.3302745262509181 -0.42048995993588706
decision_type=2 2 2
left_child=2 -2 -1
right_child=1 -3 -4
leaf_value=-0.058395654540129391 0.058616728842708098 0.05861672884270798 -0.058395654540128572
leaf_weight=0.76969841681420803 0.53957743057981133 0.25718176597729325 0.065008312230929732
leaf_count=592 107 51 50
internal_value=-0.0012503 0.0586167 -0.0583957
internal_weight=1.63147 0.796759 0.834707
internal_count=800 158 642
is_linear=0
shrinkage=0.0583196


Tree=87
num_leaves=2
num_cat=0
split_feature=1
split_gain=1.54778
threshold=-0.4030313480099143
decision_type=2
left_child=-1
right_child=-2
leaf_value=-0.058391346877479239 0.058599816896640518
leaf_weight=0.78747564763762057 0.75183204188942909
leaf_count=642 158
internal_value=-0.00125027
internal_weight=1.53931
internal_count=800
is_linear=0
shrinkage=0.0583196


Tree=88
num_leaves=4
num_cat=0
split_feature=1 1 1
split_gain=1.45984 1.11022e-16 1.11022e-16
threshold=-0.4030313480099143 -0.42124480660893543 2.8560221984526395
decision_type=2 2 2
left_child=1 -1 -2
right_child=2 -3 -4
leaf_value=-0.058387281891110789 0.05858387333005248 -0.058387281891110206 0.058583873330052182
leaf_weight=0.65728223975747824 0.56125543778762221 0.085631841095164418 0.14817143557593226
leaf_count=568 125 74 33
internal_value=-0.00125023 -0.0583873 0.0585839
internal_weight=1.45234 0.742914 0.709427
internal_count=800 642 158
is_linear=0
shrinkage=0.0583196


Tree=89
num_leaves=4
num_cat=0
split_feature=1 1 1
split_gain=1.37691 1.11022e-16 1.11022e-16
threshold=-0.4030313480099143 -0.42025318497409986 2.3302745262509181
decision_type=2 2 2
left_child=1 -1 -2
right_child=2 -3 -4
leaf_value=-0.058383441645213398 0.058568833852037656 -0.058383441645212183 0.058568833852037511
leaf_weight=0.65611179836560041 0.45333018992096186 0.044759706710465252 0.21607326809316874
leaf_count=601 107 41 51
internal_value=-0.00125019 -0.0583834 0.0585688
internal_weight=1.37027 0.700872 0.669403
internal_count=800 642 158
is_linear=0
shrinkage=0.0583196


Tree=90
num_leaves=3
num_cat=0
split_feature=1 1
split_gain=1.29871 1.11022e-16
threshold=-0.4030313480099143 -0.42013783306963931
decision_type=2 2
left_child=1 -1
right_child=-2 -3
leaf_value=-0.058379820367555291 0.058554661905256288 -0.058379820367553764
leaf_weight=0.62515872402582318 0.63162899389863014 0.036047043395228684
leaf_count=607 158 35
internal_value=-0.00125016 -0.0583798
internal_weight=1.29283 0.661206
internal_count=800 642
is_linear=0
shrinkage=0.0583196


Tree=91
num_leaves=2
num_cat=0
split_feature=1
split_gain=1.22495
threshold=-0.4030313480099143
decision_type=2
left_child=-1
right_child=-2
leaf_value=-0.058376408617074375 0.058541290291886879
leaf_weight=0.62378278677351773 0.59597825724631548
leaf_count=642 158
internal_value=-0.00125013
internal_weight=1.21976
internal_count=800
is_linear=0
shrinkage=0.0583196


Tree=92
num_leaves=4
num_cat=0
split_feature=1 1 1
split_gain=1.1554 1.11022e-16 1.11022e-16
threshold=-0.4030313480099143 -0.42013783306963931 2.6846720036706713
decision_type=2 2 2
left_child=1 -1 -2
right_child=2 -3 -4
leaf_value=-0.058373189498557528 0.058528689135526092 -0.058373189498555821 0.058528689135525808
leaf_weight=0.55639396869810298 0.42352899047546089 0.03208202455425635 0.13880361872725189
leaf_count=607 119 35 39
internal_value=-0.0012501 -0.0583732 0.0585287
internal_weight=1.15081 0.588476 0.562333
internal_count=800 642 158
is_linear=0
shrinkage=0.0583196


Tree=93
num_leaves=3
num_cat=0
split_feature=1 1
split_gain=1.0898 1.11022e-16
threshold=-0.4030313480099143 -0.42006700295286536
decision_type=2 2
left_child=1 -1
right_child=-2 -3
leaf_value=-0.058370153238656991 0.058516805343476398 -0.058370153238654993
leaf_weight=0.52749406022485346 0.53058010619133711 0.027671819552779198
leaf_count=610 158 32
internal_value=-0.00125008 -0.0583702
internal_weight=1.08575 0.555166
internal_count=800 642
is_linear=0
shrinkage=0.0583196


Tree=94
num_leaves=2
num_cat=0
split_feature=1
split_gain=1.02794
threshold=-0.4030313480099143
decision_type=2
left_child=-1
right_child=-2
leaf_value=-0.058367288161322556 0.058505598130954052
leaf_weight=0.52373977785464376 0.50061494810506701
leaf_count=642 158
internal_value=-0.00125005
internal_weight=1.02435
internal_count=800
is_linear=0
shrinkage=0.0583196


Tree=95
num_leaves=4
num_cat=0
split_feature=1 1 1
split_gain=0.969592 5.55112e-17 5.55112e-17
threshold=-0.4030313480099143 -0.42006700295286536 -0.42272009675545613
decision_type=2 2 2
left_child=1 2 -1
right_child=-2 -3 -4
leaf_value=-0.058364589993482575 0.058495029065545358 -0.058364589993480348 -0.058364589993481784
leaf_weight=0.4071250410634093 0.4723371104337275 0.024627601727843285 0.062338616873603314
leaf_count=529 158 32 81
internal_value=-0.00125003 -0.0583646 -0.0583646
internal_weight=0.966428 0.494091 0.469464
internal_count=800 642 610
is_linear=0
shrinkage=0.0583196


Tree=96
num_leaves=5
num_cat=0
split_feature=1 1 1 1
split_gain=0.914563 5.55112e-17 5.55112e-17 5.55112e-17
threshold=-0.4030313480099143 -0.42025318497409986 -0.42124480660893543 2.3302745262509181
decision_type=2 2 2 2
left_child=1 2 -1 -2
right_child=3 -3 -4 -5
leaf_value=-0.058362037078693418 0.058485066645016605 -0.058362037078691593 -0.058362037078691129 0.058485066645016397
leaf_weight=0.41239272942766547 0.30180238746106625 0.029767785046715289 0.023959436744917184 0.14384973607957363
leaf_count=568 107 41 33 51
internal_value=-0.00125 -0.058362 -0.058362 0.0584851
internal_weight=0.911772 0.46612 0.436352 0.445652
internal_count=800 642 601 158
is_linear=0
shrinkage=0.0583196


Tree=97
num_leaves=4
num_cat=0
split_feature=1 1 1
split_gain=0.862663 5.55112e-17 5.55112e-17
threshold=-0.4030313480099143 -0.42035032341996126 2.8560221984526395
decision_type=2 2 2
left_child=1 -1 -2
right_child=2 -3 -4
leaf_value=-0.05835963549328458 0.058475666559966742 -0.058359635493282783 0.05847566655996625
leaf_weight=0.40959375107195228 0.33265093225054443 0.030137332854792476 0.087819846114143729
leaf_count=598 125 44 33
internal_value=-0.00124998 -0.0583596 0.0584757
internal_weight=0.860202 0.439731 0.420471
internal_count=800 642 158
is_linear=0
shrinkage=0.0583196


Tree=98
num_leaves=3
num_cat=0
split_feature=1 1
split_gain=0.813713 5.55112e-17
threshold=-0.4030313480099143 -0.42006700295286536
decision_type=2 2
left_child=1 -1
right_child=-2 -3
leaf_value=-0.058357365680917976 0.058466803650165287 -0.058357365680915305
leaf_weight=0.39415808743797243 0.3967087953351438 0.020677145570516586
leaf_count=610 158 32
internal_value=-0.00124996 -0.0583574
internal_weight=0.811544 0.414835
internal_count=800 642
is_linear=0
shrinkage=0.0583196


Tree=99
num_leaves=5
num_cat=0
split_feature=1 1 1 1
split_gain=0.767545 5.55112e-17 5.55112e-17 5.55112e-17
threshold=-0.4030313480099143 -0.42065590478090037 -0.42180740010788292 -0.4229265159529117
decision_type=2 2 2 2
left_child=1 2 3 -1
right_child=-2 -3 -4 -5
leaf_value=-0.058355230750766485 0.058458446939429989 -0.058355230750764972 -0.058355230750763779 -0.058355230750763779
leaf_weight=0.31697973376139998 0.37428649328649044 0.03413627902045846 0.020116021565627307 0.020116021565627307
leaf_count=520 158 56 33 33
internal_value=-0.00124994 -0.0583552 -0.0583552 -0.0583552
internal_weight=0.765635 0.391348 0.357212 0.337096
internal_count=800 642 586 553
is_linear=0
shrinkage=0.0583196


end of trees

feature_importances:
Column_1=273
Column_2=7
Column_5=3
Column_6=2
Column_7=2
Column_10=1

parameters:
[boosting: gbdt]
[objective: binary]
[metric: binary_logloss]
[tree_learner: serial]
[device_type: cpu]
[data_sample_strategy: bagging]
[data: ]
[valid: ]
[num_iterations: 100]
[learning_rate: 0.0583196]
[num_leaves: 80]
[num_threads: 0]
[seed: 0]
[deterministic: 0]
[force_col_wise: 0]
[force_row_wise: 0]
[histogram_pool_size: -1]
[max_depth: 7]
[min_data_in_leaf: 31]
[min_sum_hessian_in_leaf: 0.001]
[bagging_fraction: 1]
[pos_bagging_fraction: 1]
[neg_bagging_fraction: 1]
[bagging_freq: 0]
[bagging_seed: 3]
[bagging_by_query: 0]
[feature_fraction: 1]
[feature_fraction_bynode: 1]
[feature_fraction_seed: 2]
[extra_trees: 0]
[extra_seed: 6]
[early_stopping_round: 0]
[early_stopping_min_delta: 0]
[first_metric_only: 0]
[max_delta_step: 0]
[lambda_l1: 0]
[lambda_l2: 0]
[linear_lambda: 0]
[min_gain_to_split: 0]
[drop_rate: 0.1]
[max_drop: 50]
[skip_drop: 0.5]
[xgboost_dart_mode: 0]
[uniform_drop: 0]
[drop_seed: 4]
[top_rate: 0.2]
[other_rate: 0.1]
[min_data_per_group: 100]
[max_cat_threshold: 32]
[cat_l2: 10]
[cat_smooth: 10]
[max_cat_to_onehot: 4]
[top_k: 20]
[monotone_constraints: ]
[monotone_constraints_method: basic]
[monotone_penalty: 0]
[feature_contri: ]
[forcedsplits_filename: ]
[refit_decay_rate: 0.9]
[cegb_tradeoff: 1]
[cegb_penalty_split: 0]
[cegb_penalty_feature_lazy: ]
[cegb_penalty_feature_coupled: ]
[path_smooth: 0]
[interaction_constraints: ]
[verbosity: -1]
[saved_feature_importance_type: 0]
[use_quantized_grad: 0]
[num_grad_quant_bins: 4]
[quant_train_renew_leaf: 0]
[stochastic_rounding: 1]
[linear_tree: 0]
[max_bin: 255]
[max_bin_by_feature: ]
[min_data_in_bin: 3]
[bin_construct_sample_cnt: 200000]
[data_random_seed: 1]
[is_enable_sparse: 1]
[enable_bundle: 1]
[use_missing: 1]
[zero_as_missing: 0]
[feature_pre_filter: 1]
[pre_partition: 0]
[two_round: 0]
[header: 0]
[label_column: ]
[weight_column: ]
[group_column: ]
[ignore_column: ]
[categorical_feature: ]
[forcedbins_filename: ]
[precise_float_parser: 0]
[parser_config_file: ]
[objective_seed: 5]
[num_class: 1]
[is_unbalance: 0]
[scale_pos_weight: 1]
[sigmoid: 1]
[boost_from_average: 1]
[reg_sqrt: 0]
[alpha: 0.9]
[fair_c: 1]
[poisson_max_delta_step: 0.7]
[tweedie_variance_power: 1.5]
[lambdarank_truncation_level: 30]
[lambdarank_norm: 1]
[label_gain: ]
[lambdarank_position_bias_regularization: 0]
[eval_at: ]
[multi_error_top_k: 1]
[auc_mu_weights: ]
[num_machines: 1]
[local_listen_port: 12400]
[time_out: 120]
[machine_list_filename: ]
[machines: ]
[gpu_platform_id: -1]
[gpu_device_id: -1]
[gpu_device_id_list: ]
[gpu_use_dp: 0]
[num_gpu: 1]

end of parameters

pandas_categorical:null
